<?xml version="1.0"?>
<opencv_storage>
<cascade>
  <stageType>BOOST</stageType>
  <featureType>HAAR</featureType>
  <height>20</height>
  <width>20</width>
  <stageParams>
    <boostType>GAB</boostType>
    <minHitRate>9.9500000476837158e-001</minHitRate>
    <maxFalseAlarm>5.0000000000000000e-001</maxFalseAlarm>
    <weightTrimRate>9.4999999999999996e-001</weightTrimRate>
    <maxDepth>1</maxDepth>
    <maxWeakCount>100</maxWeakCount></stageParams>
  <featureParams>
    <maxCatCount>0</maxCatCount>
    <featSize>1</featSize>
    <mode>BASIC</mode></featureParams>
  <stageNum>20</stageNum>
  <stages>
    <!-- stage 0 -->
    <_>
      <maxWeakCount>2</maxWeakCount>
      <stageThreshold>4.8128094524145126e-002</stageThreshold>
      <weakClassifiers>
        <_>
          <internalNodes>
            0 -1 20 2.7494644746184349e-002</internalNodes>
          <leafValues>
            -4.3181818723678589e-001 9.3939393758773804e-001</leafValues></_>
        <_>
          <internalNodes>
            0 -1 43 4.0375706739723682e-003</internalNodes>
          <leafValues>
            5.3380489349365234e-001 -8.9126586914062500e-001</leafValues></_></weakClassifiers></_>
    <!-- stage 1 -->
    <_>
      <maxWeakCount>2</maxWeakCount>
      <stageThreshold>-8.3619639277458191e-002</stageThreshold>
      <weakClassifiers>
        <_>
          <internalNodes>
            0 -1 51 -1.7722845077514648e-002</internalNodes>
          <leafValues>
            8.6111110448837280e-001 -4.6341463923454285e-001</leafValues></_>
        <_>
          <internalNodes>
            0 -1 69 9.0920302318409085e-004</internalNodes>
          <leafValues>
            5.1793754100799561e-001 -9.4473075866699219e-001</leafValues></_></weakClassifiers></_>
    <!-- stage 2 -->
    <_>
      <maxWeakCount>4</maxWeakCount>
      <stageThreshold>-1.9985829293727875e-001</stageThreshold>
      <weakClassifiers>
        <_>
          <internalNodes>
            0 -1 33 -5.8769695460796356e-002</internalNodes>
          <leafValues>
            7.8571426868438721e-001 -6.0000002384185791e-001</leafValues></_>
        <_>
          <internalNodes>
            0 -1 10 8.8235884904861450e-003</internalNodes>
          <leafValues>
            -5.7952517271041870e-001 7.2555911540985107e-001</leafValues></_>
        <_>
          <internalNodes>
            0 -1 73 -2.2131975856609643e-004</internalNodes>
          <leafValues>
            -8.5589861869812012e-001 5.4300427436828613e-001</leafValues></_>
        <_>
          <internalNodes>
            0 -1 63 2.1727210842072964e-003</internalNodes>
          <leafValues>
            4.4985124468803406e-001 -8.4529083967208862e-001</leafValues></_></weakClassifiers></_>
    <!-- stage 3 -->
    <_>
      <maxWeakCount>4</maxWeakCount>
      <stageThreshold>-8.9068561792373657e-001</stageThreshold>
      <weakClassifiers>
        <_>
          <internalNodes>
            0 -1 56 -2.4347439408302307e-002</internalNodes>
          <leafValues>
            8.8235294818878174e-001 -4.1860464215278625e-001</leafValues></_>
        <_>
          <internalNodes>
            0 -1 31 2.8199912048876286e-003</internalNodes>
          <leafValues>
            6.2052488327026367e-001 -6.3123035430908203e-001</leafValues></_>
        <_>
          <internalNodes>
            0 -1 41 -1.3635205104947090e-003</internalNodes>
          <leafValues>
            -6.7239284515380859e-001 5.1448917388916016e-001</leafValues></_>
        <_>
          <internalNodes>
            0 -1 60 5.1025412976741791e-003</internalNodes>
          <leafValues>
            -4.6941533684730530e-001 8.1790900230407715e-001</leafValues></_></weakClassifiers></_>
    <!-- stage 4 -->
    <_>
      <maxWeakCount>2</maxWeakCount>
      <stageThreshold>4.6485029160976410e-003</stageThreshold>
      <weakClassifiers>
        <_>
          <internalNodes>
            0 -1 74 9.6263474551960826e-004</internalNodes>
          <leafValues>
            5.5555558204650879e-001 -7.8260868787765503e-001</leafValues></_>
        <_>
          <internalNodes>
            0 -1 8 1.2617714703083038e-002</internalNodes>
          <leafValues>
            -5.5090707540512085e-001 8.6341768503189087e-001</leafValues></_></weakClassifiers></_>
    <!-- stage 5 -->
    <_>
      <maxWeakCount>4</maxWeakCount>
      <stageThreshold>-2.1621516346931458e-001</stageThreshold>
      <weakClassifiers>
        <_>
          <internalNodes>
            0 -1 11 -3.1483124941587448e-002</internalNodes>
          <leafValues>
            5.5357140302658081e-001 -9.0476191043853760e-001</leafValues></_>
        <_>
          <internalNodes>
            0 -1 45 -5.7523317635059357e-002</internalNodes>
          <leafValues>
            8.5865628719329834e-001 -4.5414504408836365e-001</leafValues></_>
        <_>
          <internalNodes>
            0 -1 49 -4.6306371223181486e-004</internalNodes>
          <leafValues>
            -7.4937325716018677e-001 5.3873872756958008e-001</leafValues></_>
        <_>
          <internalNodes>
            0 -1 40 -1.8223878578282893e-004</internalNodes>
          <leafValues>
            -6.0541254281997681e-001 6.0395306348800659e-001</leafValues></_></weakClassifiers></_>
    <!-- stage 6 -->
    <_>
      <maxWeakCount>3</maxWeakCount>
      <stageThreshold>7.2967872023582458e-002</stageThreshold>
      <weakClassifiers>
        <_>
          <internalNodes>
            0 -1 2 2.3563457652926445e-003</internalNodes>
          <leafValues>
            -6.6101694107055664e-001 6.6315788030624390e-001</leafValues></_>
        <_>
          <internalNodes>
            0 -1 64 2.0067519508302212e-003</internalNodes>
          <leafValues>
            3.7397158145904541e-001 -9.6534520387649536e-001</leafValues></_>
        <_>
          <internalNodes>
            0 -1 16 8.3098397590219975e-004</internalNodes>
          <leafValues>
            3.7515521049499512e-001 -8.2122796773910522e-001</leafValues></_></weakClassifiers></_>
    <!-- stage 7 -->
    <_>
      <maxWeakCount>4</maxWeakCount>
      <stageThreshold>-7.7051949501037598e-001</stageThreshold>
      <weakClassifiers>
        <_>
          <internalNodes>
            0 -1 6 6.5114982426166534e-003</internalNodes>
          <leafValues>
            -3.2631579041481018e-001 9.3220341205596924e-001</leafValues></_>
        <_>
          <internalNodes>
            0 -1 27 1.3906800188124180e-002</internalNodes>
          <leafValues>
            -6.5817981958389282e-001 6.5525496006011963e-001</leafValues></_>
        <_>
          <internalNodes>
            0 -1 72 1.3015801087021828e-003</internalNodes>
          <leafValues>
            -4.8366764187812805e-001 6.5147113800048828e-001</leafValues></_>
        <_>
          <internalNodes>
            0 -1 54 3.0872174538671970e-003</internalNodes>
          <leafValues>
            -6.1579102277755737e-001 5.1709491014480591e-001</leafValues></_></weakClassifiers></_>
    <!-- stage 8 -->
    <_>
      <maxWeakCount>4</maxWeakCount>
      <stageThreshold>-1.2171659618616104e-001</stageThreshold>
      <weakClassifiers>
        <_>
          <internalNodes>
            0 -1 7 7.7784750610589981e-003</internalNodes>
          <leafValues>
            -4.8051947355270386e-001 7.9220777750015259e-001</leafValues></_>
        <_>
          <internalNodes>
            0 -1 39 -7.7080493792891502e-004</internalNodes>
          <leafValues>
            -6.9393426179885864e-001 5.0470840930938721e-001</leafValues></_>
        <_>
          <internalNodes>
            0 -1 3 2.4941548705101013e-002</internalNodes>
          <leafValues>
            -4.0927857160568237e-001 7.1865528821945190e-001</leafValues></_>
        <_>
          <internalNodes>
            0 -1 71 1.7916961805894971e-003</internalNodes>
          <leafValues>
            3.3408182859420776e-001 -9.7084480524063110e-001</leafValues></_></weakClassifiers></_>
    <!-- stage 9 -->
    <_>
      <maxWeakCount>3</maxWeakCount>
      <stageThreshold>1.3005679845809937e-001</stageThreshold>
      <weakClassifiers>
        <_>
          <internalNodes>
            0 -1 52 2.1018553525209427e-003</internalNodes>
          <leafValues>
            5.5769228935241699e-001 -6.8000000715255737e-001</leafValues></_>
        <_>
          <internalNodes>
            0 -1 50 -2.9262795578688383e-004</internalNodes>
          <leafValues>
            -7.4579042196273804e-001 4.3664789199829102e-001</leafValues></_>
        <_>
          <internalNodes>
            0 -1 37 2.4915735702961683e-003</internalNodes>
          <leafValues>
            3.7340891361236572e-001 -8.2711720466613770e-001</leafValues></_></weakClassifiers></_>
    <!-- stage 10 -->
    <_>
      <maxWeakCount>4</maxWeakCount>
      <stageThreshold>-9.4519388675689697e-001</stageThreshold>
      <weakClassifiers>
        <_>
          <internalNodes>
            0 -1 17 -5.6464131921529770e-003</internalNodes>
          <leafValues>
            5.9139782190322876e-001 -5.0819671154022217e-001</leafValues></_>
        <_>
          <internalNodes>
            0 -1 42 -1.2546651996672153e-003</internalNodes>
          <leafValues>
            7.4088186025619507e-001 -3.7460464239120483e-001</leafValues></_>
        <_>
          <internalNodes>
            0 -1 44 -1.5317031182348728e-002</internalNodes>
          <leafValues>
            5.4271483421325684e-001 -5.3559821844100952e-001</leafValues></_>
        <_>
          <internalNodes>
            0 -1 30 1.1499782558530569e-003</internalNodes>
          <leafValues>
            4.7320571541786194e-001 -7.4538677930831909e-001</leafValues></_></weakClassifiers></_>
    <!-- stage 11 -->
    <_>
      <maxWeakCount>4</maxWeakCount>
      <stageThreshold>-5.3852164745330811e-001</stageThreshold>
      <weakClassifiers>
        <_>
          <internalNodes>
            0 -1 19 7.0603089407086372e-003</internalNodes>
          <leafValues>
            -4.4736841320991516e-001 7.4358975887298584e-001</leafValues></_>
        <_>
          <internalNodes>
            0 -1 5 3.8641251623630524e-002</internalNodes>
          <leafValues>
            -4.2623627185821533e-001 6.3567990064620972e-001</leafValues></_>
        <_>
          <internalNodes>
            0 -1 36 -2.8586806729435921e-003</internalNodes>
          <leafValues>
            8.5971379280090332e-001 -3.0470260977745056e-001</leafValues></_>
        <_>
          <internalNodes>
            0 -1 68 2.1777037531137466e-002</internalNodes>
          <leafValues>
            -4.2213052511215210e-001 7.1394175291061401e-001</leafValues></_></weakClassifiers></_>
    <!-- stage 12 -->
    <_>
      <maxWeakCount>5</maxWeakCount>
      <stageThreshold>-1.2987127900123596e-001</stageThreshold>
      <weakClassifiers>
        <_>
          <internalNodes>
            0 -1 53 -2.2955797612667084e-002</internalNodes>
          <leafValues>
            7.8125000000000000e-001 -2.8888890147209167e-001</leafValues></_>
        <_>
          <internalNodes>
            0 -1 47 1.7081871628761292e-002</internalNodes>
          <leafValues>
            -3.8655307888984680e-001 6.7777448892593384e-001</leafValues></_>
        <_>
          <internalNodes>
            0 -1 67 1.3444180600345135e-002</internalNodes>
          <leafValues>
            -3.6353281140327454e-001 8.8671481609344482e-001</leafValues></_>
        <_>
          <internalNodes>
            0 -1 24 -5.1136851310729980e-002</internalNodes>
          <leafValues>
            3.4679925441741943e-001 -8.2455199956893921e-001</leafValues></_>
        <_>
          <internalNodes>
            0 -1 35 -1.4962821733206511e-003</internalNodes>
          <leafValues>
            5.6230425834655762e-001 -4.9519586563110352e-001</leafValues></_></weakClassifiers></_>
    <!-- stage 13 -->
    <_>
      <maxWeakCount>3</maxWeakCount>
      <stageThreshold>-1.9733363389968872e-001</stageThreshold>
      <weakClassifiers>
        <_>
          <internalNodes>
            0 -1 9 6.8174069747328758e-003</internalNodes>
          <leafValues>
            -3.5897436738014221e-001 6.8421053886413574e-001</leafValues></_>
        <_>
          <internalNodes>
            0 -1 61 5.9789605438709259e-002</internalNodes>
          <leafValues>
            -3.6521413922309875e-001 7.2449320554733276e-001</leafValues></_>
        <_>
          <internalNodes>
            0 -1 65 8.6501514306291938e-004</internalNodes>
          <leafValues>
            -4.5380842685699463e-001 5.2685487270355225e-001</leafValues></_></weakClassifiers></_>
    <!-- stage 14 -->
    <_>
      <maxWeakCount>5</maxWeakCount>
      <stageThreshold>-5.6528127193450928e-001</stageThreshold>
      <weakClassifiers>
        <_>
          <internalNodes>
            0 -1 4 -7.4734138324856758e-003</internalNodes>
          <leafValues>
            -8.7096774578094482e-001 4.1463413834571838e-001</leafValues></_>
        <_>
          <internalNodes>
            0 -1 59 -4.8246427468257025e-005</internalNodes>
          <leafValues>
            4.5455208420753479e-001 -5.7006072998046875e-001</leafValues></_>
        <_>
          <internalNodes>
            0 -1 25 9.8326453007757664e-004</internalNodes>
          <leafValues>
            4.2899692058563232e-001 -6.0102993249893188e-001</leafValues></_>
        <_>
          <internalNodes>
            0 -1 57 -5.0268039107322693e-002</internalNodes>
          <leafValues>
            6.8933475017547607e-001 -4.0817672014236450e-001</leafValues></_>
        <_>
          <internalNodes>
            0 -1 48 -1.6157435253262520e-002</internalNodes>
          <leafValues>
            6.9736772775650024e-001 -4.2526087164878845e-001</leafValues></_></weakClassifiers></_>
    <!-- stage 15 -->
    <_>
      <maxWeakCount>4</maxWeakCount>
      <stageThreshold>-2.4005094170570374e-001</stageThreshold>
      <weakClassifiers>
        <_>
          <internalNodes>
            0 -1 70 -1.1710446560755372e-003</internalNodes>
          <leafValues>
            -5.5102038383483887e-001 4.8571428656578064e-001</leafValues></_>
        <_>
          <internalNodes>
            0 -1 28 -3.0715431785210967e-004</internalNodes>
          <leafValues>
            -5.5532217025756836e-001 3.7973424792289734e-001</leafValues></_>
        <_>
          <internalNodes>
            0 -1 1 3.2146692276000977e-002</internalNodes>
          <leafValues>
            -3.3813315629959106e-001 7.5468349456787109e-001</leafValues></_>
        <_>
          <internalNodes>
            0 -1 22 1.5382344136014581e-003</internalNodes>
          <leafValues>
            2.6936838030815125e-001 -1.</leafValues></_></weakClassifiers></_>
    <!-- stage 16 -->
    <_>
      <maxWeakCount>6</maxWeakCount>
      <stageThreshold>-1.0597352981567383e+000</stageThreshold>
      <weakClassifiers>
        <_>
          <internalNodes>
            0 -1 58 4.6739950776100159e-003</internalNodes>
          <leafValues>
            -3.1578946113586426e-001 6.1538463830947876e-001</leafValues></_>
        <_>
          <internalNodes>
            0 -1 34 3.0030943453311920e-003</internalNodes>
          <leafValues>
            4.3851509690284729e-001 -5.4007214307785034e-001</leafValues></_>
        <_>
          <internalNodes>
            0 -1 29 2.9651291668415070e-002</internalNodes>
          <leafValues>
            -3.2345578074455261e-001 8.0171501636505127e-001</leafValues></_>
        <_>
          <internalNodes>
            0 -1 18 1.5668885316699743e-003</internalNodes>
          <leafValues>
            -4.4592407345771790e-001 5.6014657020568848e-001</leafValues></_>
        <_>
          <internalNodes>
            0 -1 62 -7.4057821184396744e-003</internalNodes>
          <leafValues>
            7.8935629129409790e-001 -2.6088431477546692e-001</leafValues></_>
        <_>
          <internalNodes>
            0 -1 55 -5.8740107342600822e-003</internalNodes>
          <leafValues>
            8.6455506086349487e-001 -2.9878032207489014e-001</leafValues></_></weakClassifiers></_>
    <!-- stage 17 -->
    <_>
      <maxWeakCount>5</maxWeakCount>
      <stageThreshold>-2.5221937894821167e-001</stageThreshold>
      <weakClassifiers>
        <_>
          <internalNodes>
            0 -1 13 1.7126810271292925e-003</internalNodes>
          <leafValues>
            4.4642856717109680e-001 -6.1904764175415039e-001</leafValues></_>
        <_>
          <internalNodes>
            0 -1 15 -1.1749295517802238e-003</internalNodes>
          <leafValues>
            3.3402946591377258e-001 -6.6265648603439331e-001</leafValues></_>
        <_>
          <internalNodes>
            0 -1 12 1.5506114810705185e-002</internalNodes>
          <leafValues>
            -2.6117178797721863e-001 9.3595278263092041e-001</leafValues></_>
        <_>
          <internalNodes>
            0 -1 38 2.4636564776301384e-003</internalNodes>
          <leafValues>
            5.0758802890777588e-001 -5.4909533262252808e-001</leafValues></_>
        <_>
          <internalNodes>
            0 -1 66 -2.5307838805019855e-003</internalNodes>
          <leafValues>
            9.0382707118988037e-001 -2.2241030633449554e-001</leafValues></_></weakClassifiers></_>
    <!-- stage 18 -->
    <_>
      <maxWeakCount>4</maxWeakCount>
      <stageThreshold>-8.1221587955951691e-002</stageThreshold>
      <weakClassifiers>
        <_>
          <internalNodes>
            0 -1 0 -9.2557519674301147e-003</internalNodes>
          <leafValues>
            -7.6190477609634399e-001 5.0000000000000000e-001</leafValues></_>
        <_>
          <internalNodes>
            0 -1 75 -7.9576559364795685e-003</internalNodes>
          <leafValues>
            8.7471824884414673e-001 -2.9223677515983582e-001</leafValues></_>
        <_>
          <internalNodes>
            0 -1 32 -1.3739586574956775e-003</internalNodes>
          <leafValues>
            5.0237613916397095e-001 -5.1559203863143921e-001</leafValues></_>
        <_>
          <internalNodes>
            0 -1 26 -8.1730925012379885e-004</internalNodes>
          <leafValues>
            -4.9598076939582825e-001 4.7054383158683777e-001</leafValues></_></weakClassifiers></_>
    <!-- stage 19 -->
    <_>
      <maxWeakCount>4</maxWeakCount>
      <stageThreshold>-2.0758022367954254e-001</stageThreshold>
      <weakClassifiers>
        <_>
          <internalNodes>
            0 -1 14 5.1030535250902176e-003</internalNodes>
          <leafValues>
            -3.9130434393882751e-001 6.0000002384185791e-001</leafValues></_>
        <_>
          <internalNodes>
            0 -1 23 3.4971977584064007e-003</internalNodes>
          <leafValues>
            3.0456203222274780e-001 -9.6055066585540771e-001</leafValues></_>
        <_>
          <internalNodes>
            0 -1 46 5.5627007968723774e-003</internalNodes>
          <leafValues>
            2.3091992735862732e-001 -9.1079920530319214e-001</leafValues></_>
        <_>
          <internalNodes>
            0 -1 21 2.6840385049581528e-002</internalNodes>
          <leafValues>
            -3.5175785422325134e-001 8.4067010879516602e-001</leafValues></_></weakClassifiers></_></stages>
  <features>
    <_>
      <rects>
        <_>
          0 0 1 10 -1.</_>
        <_>
          0 5 1 5 2.</_></rects>
      <tilted>0</tilted></_>
    <_>
      <rects>
        <_>
          0 0 2 17 -1.</_>
        <_>
          1 0 1 17 2.</_></rects>
      <tilted>0</tilted></_>
    <_>
      <rects>
        <_>
          0 0 4 4 -1.</_>
        <_>
          2 0 2 4 2.</_></rects>
      <tilted>0</tilted></_>
    <_>
      <rects>
        <_>
          0 0 6 16 -1.</_>
        <_>
          2 0 2 16 3.</_></rects>
      <tilted>0</tilted></_>
    <_>
      <rects>
        <_>
          0 0 12 1 -1.</_>
        <_>
          6 0 6 1 2.</_></rects>
      <tilted>0</tilted></_>
    <_>
      <rects>
        <_>
          0 0 13 6 -1.</_>
        <_>
          0 2 13 2 3.</_></rects>
      <tilted>0</tilted></_>
    <_>
      <rects>
        <_>
          0 1 2 6 -1.</_>
        <_>
          1 1 1 6 2.</_></rects>
      <tilted>0</tilted></_>
    <_>
      <rects>
        <_>
          0 1 2 14 -1.</_>
        <_>
          1 1 1 14 2.</_></rects>
      <tilted>0</tilted></_>
    <_>
      <rects>
        <_>
          0 1 2 18 -1.</_>
        <_>
          1 1 1 18 2.</_></rects>
      <tilted>0</tilted></_>
    <_>
      <rects>
        <_>
          0 1 4 3 -1.</_>
        <_>
          2 1 2 3 2.</_></rects>
      <tilted>0</tilted></_>
    <_>
      <rects>
        <_>
          0 1 6 12 -1.</_>
        <_>
          2 1 2 12 3.</_></rects>
      <tilted>0</tilted></_>
    <_>
      <rects>
        <_>
          0 2 7 18 -1.</_>
        <_>
          0 11 7 9 2.</_></rects>
      <tilted>0</tilted></_>
    <_>
      <rects>
        <_>
          0 3 3 5 -1.</_>
        <_>
          1 3 1 5 3.</_></rects>
      <tilted>0</tilted></_>
    <_>
      <rects>
        <_>
          0 3 2 6 -1.</_>
        <_>
          0 6 2 3 2.</_></rects>
      <tilted>0</tilted></_>
    <_>
      <rects>
        <_>
          0 4 2 11 -1.</_>
        <_>
          1 4 1 11 2.</_></rects>
      <tilted>0</tilted></_>
    <_>
      <rects>
        <_>
          0 5 1 10 -1.</_>
        <_>
          0 10 1 5 2.</_></rects>
      <tilted>0</tilted></_>
    <_>
      <rects>
        <_>
          0 7 2 2 -1.</_>
        <_>
          0 8 2 1 2.</_></rects>
      <tilted>0</tilted></_>
    <_>
      <rects>
        <_>
          0 7 2 10 -1.</_>
        <_>
          0 12 2 5 2.</_></rects>
      <tilted>0</tilted></_>
    <_>
      <rects>
        <_>
          0 8 4 6 -1.</_>
        <_>
          0 8 2 3 2.</_>
        <_>
          2 11 2 3 2.</_></rects>
      <tilted>0</tilted></_>
    <_>
      <rects>
        <_>
          0 8 8 8 -1.</_>
        <_>
          0 8 4 4 2.</_>
        <_>
          4 12 4 4 2.</_></rects>
      <tilted>0</tilted></_>
    <_>
      <rects>
        <_>
          0 12 12 8 -1.</_>
        <_>
          6 12 6 8 2.</_></rects>
      <tilted>0</tilted></_>
    <_>
      <rects>
        <_>
          0 13 6 6 -1.</_>
        <_>
          3 13 3 6 2.</_></rects>
      <tilted>0</tilted></_>
    <_>
      <rects>
        <_>
          0 14 3 2 -1.</_>
        <_>
          0 15 3 1 2.</_></rects>
      <tilted>0</tilted></_>
    <_>
      <rects>
        <_>
          0 16 4 2 -1.</_>
        <_>
          0 17 4 1 2.</_></rects>
      <tilted>0</tilted></_>
    <_>
      <rects>
        <_>
          1 0 13 20 -1.</_>
        <_>
          1 10 13 10 2.</_></rects>
      <tilted>0</tilted></_>
    <_>
      <rects>
        <_>
          1 4 2 6 -1.</_>
        <_>
          1 6 2 2 3.</_></rects>
      <tilted>0</tilted></_>
    <_>
      <rects>
        <_>
          1 8 3 4 -1.</_>
        <_>
          1 10 3 2 2.</_></rects>
      <tilted>0</tilted></_>
    <_>
      <rects>
        <_>
          2 0 18 6 -1.</_>
        <_>
          2 2 18 2 3.</_></rects>
      <tilted>0</tilted></_>
    <_>
      <rects>
        <_>
          2 9 4 3 -1.</_>
        <_>
          2 10 4 1 3.</_></rects>
      <tilted>0</tilted></_>
    <_>
      <rects>
        <_>
          3 0 13 3 -1.</_>
        <_>
          3 1 13 1 3.</_></rects>
      <tilted>0</tilted></_>
    <_>
      <rects>
        <_>
          3 9 6 7 -1.</_>
        <_>
          5 9 2 7 3.</_></rects>
      <tilted>0</tilted></_>
    <_>
      <rects>
        <_>
          3 9 13 3 -1.</_>
        <_>
          3 10 13 1 3.</_></rects>
      <tilted>0</tilted></_>
    <_>
      <rects>
        <_>
          4 1 6 8 -1.</_>
        <_>
          6 1 2 8 3.</_></rects>
      <tilted>0</tilted></_>
    <_>
      <rects>
        <_>
          4 14 16 6 -1.</_>
        <_>
          4 17 16 3 2.</_></rects>
      <tilted>0</tilted></_>
    <_>
      <rects>
        <_>
          5 1 6 11 -1.</_>
        <_>
          7 1 2 11 3.</_></rects>
      <tilted>0</tilted></_>
    <_>
      <rects>
        <_>
          5 2 4 2 -1.</_>
        <_>
          5 3 4 1 2.</_></rects>
      <tilted>0</tilted></_>
    <_>
      <rects>
        <_>
          5 6 7 3 -1.</_>
        <_>
          5 7 7 1 3.</_></rects>
      <tilted>0</tilted></_>
    <_>
      <rects>
        <_>
          5 7 3 4 -1.</_>
        <_>
          6 7 1 4 3.</_></rects>
      <tilted>0</tilted></_>
    <_>
      <rects>
        <_>
          5 7 6 8 -1.</_>
        <_>
          5 7 3 4 2.</_>
        <_>
          8 11 3 4 2.</_></rects>
      <tilted>0</tilted></_>
    <_>
      <rects>
        <_>
          5 11 8 2 -1.</_>
        <_>
          5 11 4 1 2.</_>
        <_>
          9 12 4 1 2.</_></rects>
      <tilted>0</tilted></_>
    <_>
      <rects>
        <_>
          6 9 2 8 -1.</_>
        <_>
          6 9 1 4 2.</_>
        <_>
          7 13 1 4 2.</_></rects>
      <tilted>0</tilted></_>
    <_>
      <rects>
        <_>
          7 1 4 16 -1.</_>
        <_>
          9 1 2 16 2.</_></rects>
      <tilted>0</tilted></_>
    <_>
      <rects>
        <_>
          7 2 1 6 -1.</_>
        <_>
          7 4 1 2 3.</_></rects>
      <tilted>0</tilted></_>
    <_>
      <rects>
        <_>
          7 10 9 3 -1.</_>
        <_>
          7 11 9 1 3.</_></rects>
      <tilted>0</tilted></_>
    <_>
      <rects>
        <_>
          7 16 7 4 -1.</_>
        <_>
          7 18 7 2 2.</_></rects>
      <tilted>0</tilted></_>
    <_>
      <rects>
        <_>
          7 16 10 4 -1.</_>
        <_>
          7 18 10 2 2.</_></rects>
      <tilted>0</tilted></_>
    <_>
      <rects>
        <_>
          8 0 12 1 -1.</_>
        <_>
          14 0 6 1 2.</_></rects>
      <tilted>0</tilted></_>
    <_>
      <rects>
        <_>
          8 0 11 4 -1.</_>
        <_>
          8 2 11 2 2.</_></rects>
      <tilted>0</tilted></_>
    <_>
      <rects>
        <_>
          8 4 9 15 -1.</_>
        <_>
          11 4 3 15 3.</_></rects>
      <tilted>0</tilted></_>
    <_>
      <rects>
        <_>
          8 9 1 3 -1.</_>
        <_>
          8 10 1 1 3.</_></rects>
      <tilted>0</tilted></_>
    <_>
      <rects>
        <_>
          8 9 2 2 -1.</_>
        <_>
          8 9 1 1 2.</_>
        <_>
          9 10 1 1 2.</_></rects>
      <tilted>0</tilted></_>
    <_>
      <rects>
        <_>
          8 14 3 6 -1.</_>
        <_>
          8 17 3 3 2.</_></rects>
      <tilted>0</tilted></_>
    <_>
      <rects>
        <_>
          9 11 3 3 -1.</_>
        <_>
          9 12 3 1 3.</_></rects>
      <tilted>0</tilted></_>
    <_>
      <rects>
        <_>
          9 16 4 4 -1.</_>
        <_>
          9 18 4 2 2.</_></rects>
      <tilted>0</tilted></_>
    <_>
      <rects>
        <_>
          10 0 10 10 -1.</_>
        <_>
          10 0 5 5 2.</_>
        <_>
          15 5 5 5 2.</_></rects>
      <tilted>0</tilted></_>
    <_>
      <rects>
        <_>
          10 4 6 3 -1.</_>
        <_>
          10 5 6 1 3.</_></rects>
      <tilted>0</tilted></_>
    <_>
      <rects>
        <_>
          10 16 5 4 -1.</_>
        <_>
          10 18 5 2 2.</_></rects>
      <tilted>0</tilted></_>
    <_>
      <rects>
        <_>
          10 16 8 4 -1.</_>
        <_>
          10 18 8 2 2.</_></rects>
      <tilted>0</tilted></_>
    <_>
      <rects>
        <_>
          11 0 1 6 -1.</_>
        <_>
          11 2 1 2 3.</_></rects>
      <tilted>0</tilted></_>
    <_>
      <rects>
        <_>
          11 4 1 12 -1.</_>
        <_>
          11 8 1 4 3.</_></rects>
      <tilted>0</tilted></_>
    <_>
      <rects>
        <_>
          12 0 3 3 -1.</_>
        <_>
          12 1 3 1 3.</_></rects>
      <tilted>0</tilted></_>
    <_>
      <rects>
        <_>
          12 8 5 12 -1.</_>
        <_>
          12 12 5 4 3.</_></rects>
      <tilted>0</tilted></_>
    <_>
      <rects>
        <_>
          12 12 8 6 -1.</_>
        <_>
          12 12 4 3 2.</_>
        <_>
          16 15 4 3 2.</_></rects>
      <tilted>0</tilted></_>
    <_>
      <rects>
        <_>
          13 11 4 3 -1.</_>
        <_>
          13 12 4 1 3.</_></rects>
      <tilted>0</tilted></_>
    <_>
      <rects>
        <_>
          13 12 3 2 -1.</_>
        <_>
          14 12 1 2 3.</_></rects>
      <tilted>0</tilted></_>
    <_>
      <rects>
        <_>
          14 0 1 3 -1.</_>
        <_>
          14 1 1 1 3.</_></rects>
      <tilted>0</tilted></_>
    <_>
      <rects>
        <_>
          14 2 4 4 -1.</_>
        <_>
          14 2 2 2 2.</_>
        <_>
          16 4 2 2 2.</_></rects>
      <tilted>0</tilted></_>
    <_>
      <rects>
        <_>
          14 3 6 4 -1.</_>
        <_>
          16 3 2 4 3.</_></rects>
      <tilted>0</tilted></_>
    <_>
      <rects>
        <_>
          14 4 6 14 -1.</_>
        <_>
          16 4 2 14 3.</_></rects>
      <tilted>0</tilted></_>
    <_>
      <rects>
        <_>
          15 10 1 3 -1.</_>
        <_>
          15 11 1 1 3.</_></rects>
      <tilted>0</tilted></_>
    <_>
      <rects>
        <_>
          16 8 2 4 -1.</_>
        <_>
          16 10 2 2 2.</_></rects>
      <tilted>0</tilted></_>
    <_>
      <rects>
        <_>
          16 10 4 2 -1.</_>
        <_>
          16 11 4 1 2.</_></rects>
      <tilted>0</tilted></_>
    <_>
      <rects>
        <_>
          17 0 2 12 -1.</_>
        <_>
          17 4 2 4 3.</_></rects>
      <tilted>0</tilted></_>
    <_>
      <rects>
        <_>
          17 9 1 2 -1.</_>
        <_>
          17 10 1 1 2.</_></rects>
      <tilted>0</tilted></_>
    <_>
      <rects>
        <_>
          17 9 1 3 -1.</_>
        <_>
          17 10 1 1 3.</_></rects>
      <tilted>0</tilted></_>
    <_>
      <rects>
        <_>
          18 6 2 8 -1.</_>
        <_>
          19 6 1 8 2.</_></rects>
      <tilted>0</tilted></_></features></cascade>
</opencv_storage>
