<?xml version="1.0"?>
<opencv_storage>
<stage17>
  <maxWeakCount>5</maxWeakCount>
  <stageThreshold>-2.5221937894821167e-001</stageThreshold>
  <weakClassifiers>
    <_>
      <internalNodes>
        0 -1 2178 1.7126810271292925e-003</internalNodes>
      <leafValues>
        4.4642856717109680e-001 -6.1904764175415039e-001</leafValues></_>
    <_>
      <internalNodes>
        0 -1 3341 -1.1749295517802238e-003</internalNodes>
      <leafValues>
        3.3402946591377258e-001 -6.6265648603439331e-001</leafValues></_>
    <_>
      <internalNodes>
        0 -1 2134 1.5506114810705185e-002</internalNodes>
      <leafValues>
        -2.6117178797721863e-001 9.3595278263092041e-001</leafValues></_>
    <_>
      <internalNodes>
        0 -1 37552 2.4636564776301384e-003</internalNodes>
      <leafValues>
        5.0758802890777588e-001 -5.4909533262252808e-001</leafValues></_>
    <_>
      <internalNodes>
        0 -1 71704 -2.5307838805019855e-003</internalNodes>
      <leafValues>
        9.0382707118988037e-001 -2.2241030633449554e-001</leafValues></_></weakClassifiers></stage17>
</opencv_storage>
